digraph Tree {
node [shape=box, style="rounded", color="black", fontname=helvetica] ;
edge [fontname=helvetica] ;
0 [label="temp_1 <= 63.0\nmse = 146.5\nsamples = 157\nvalue = 62.8"] ;
1 [label="average <= 46.8\nmse = 48.9\nsamples = 76\nvalue = 53.3"] ;
0 -> 1 [labeldistance=2.5, labelangle=45, headlabel="True"] ;
2 [label="day <= 28.0\nmse = 26.7\nsamples = 17\nvalue = 43.0"] ;
1 -> 2 ;
3 [label="mse = 10.9\nsamples = 15\nvalue = 41.9"] ;
2 -> 3 ;
4 [label="mse = 64.2\nsamples = 2\nvalue = 51.3"] ;
2 -> 4 ;
5 [label="forecast_noaa <= 50.5\nmse = 23.7\nsamples = 59\nvalue = 55.7"] ;
1 -> 5 ;
6 [label="mse = 9.3\nsamples = 38\nvalue = 53.0"] ;
5 -> 6 ;
7 [label="mse = 12.9\nsamples = 21\nvalue = 60.6"] ;
5 -> 7 ;
8 [label="temp_1 <= 69.5\nmse = 59.5\nsamples = 81\nvalue = 72.5"] ;
0 -> 8 [labeldistance=2.5, labelangle=-45, headlabel="False"] ;
9 [label="friend <= 55.5\nmse = 30.4\nsamples = 29\nvalue = 65.8"] ;
8 -> 9 ;
10 [label="mse = 11.4\nsamples = 5\nvalue = 58.1"] ;
9 -> 10 ;
11 [label="mse = 15.4\nsamples = 24\nvalue = 67.9"] ;
9 -> 11 ;
12 [label="forecast_under <= 76.5\nmse = 40.5\nsamples = 52\nvalue = 75.9"] ;
8 -> 12 ;
13 [label="mse = 36.5\nsamples = 34\nvalue = 73.9"] ;
12 -> 13 ;
14 [label="mse = 32.1\nsamples = 18\nvalue = 78.8"] ;
12 -> 14 ;
}