digraph Tree {
node [shape=box, style="rounded", color="black", fontname="helvetica"] ;
edge [fontname="helvetica"] ;
0 [label="temp_1 <= 59.5\nsquared_error = 135.3\nsamples = 176\nvalue = 62.3"] ;
1 [label="average <= 49.2\nsquared_error = 43.2\nsamples = 78\nvalue = 52.0"] ;
0 -> 1 [labeldistance=2.5, labelangle=45, headlabel="True"] ;
2 [label="temp_1 <= 44.5\nsquared_error = 26.1\nsamples = 41\nvalue = 47.2"] ;
1 -> 2 ;
3 [label="week_Mon <= 0.5\nsquared_error = 5.9\nsamples = 12\nvalue = 40.6"] ;
2 -> 3 ;
4 [label="temp_1 <= 37.5\nsquared_error = 3.8\nsamples = 9\nvalue = 39.8"] ;
3 -> 4 ;
5 [label="temp_2 <= 37.0\nsquared_error = 3.0\nsamples = 2\nvalue = 38.0"] ;
4 -> 5 ;
6 [label="squared_error = 0.0\nsamples = 1\nvalue = 39.0"] ;
5 -> 6 ;
7 [label="squared_error = 0.0\nsamples = 1\nvalue = 35.0"] ;
5 -> 7 ;
8 [label="temp_2 <= 38.0\nsquared_error = 2.0\nsamples = 7\nvalue = 40.7"] ;
4 -> 8 ;
9 [label="squared_error = 0.0\nsamples = 1\nvalue = 44.0"] ;
8 -> 9 ;
10 [label="forecast_under <= 45.5\nsquared_error = 0.7\nsamples = 6\nvalue = 40.2"] ;
8 -> 10 ;
11 [label="squared_error = 0.0\nsamples = 1\nvalue = 39.0"] ;
10 -> 11 ;
12 [label="temp_1 <= 41.0\nsquared_error = 0.2\nsamples = 5\nvalue = 40.7"] ;
10 -> 12 ;
13 [label="squared_error = 0.0\nsamples = 2\nvalue = 41.0"] ;
12 -> 13 ;
14 [label="temp_1 <= 43.5\nsquared_error = 0.2\nsamples = 3\nvalue = 40.3"] ;
12 -> 14 ;
15 [label="squared_error = 0.0\nsamples = 2\nvalue = 40.0"] ;
14 -> 15 ;
16 [label="squared_error = 0.0\nsamples = 1\nvalue = 41.0"] ;
14 -> 16 ;
17 [label="temp_2 <= 38.0\nsquared_error = 2.9\nsamples = 3\nvalue = 43.7"] ;
3 -> 17 ;
18 [label="squared_error = 0.0\nsamples = 1\nvalue = 46.0"] ;
17 -> 18 ;
19 [label="day <= 19.0\nsquared_error = 0.2\nsamples = 2\nvalue = 42.5"] ;
17 -> 19 ;
20 [label="squared_error = 0.0\nsamples = 1\nvalue = 43.0"] ;
19 -> 20 ;
21 [label="squared_error = 0.0\nsamples = 1\nvalue = 42.0"] ;
19 -> 21 ;
22 [label="average <= 46.9\nsquared_error = 12.2\nsamples = 29\nvalue = 49.6"] ;
2 -> 22 ;
23 [label="forecast_acc <= 46.5\nsquared_error = 16.5\nsamples = 10\nvalue = 47.3"] ;
22 -> 23 ;
24 [label="squared_error = 0.0\nsamples = 1\nvalue = 57.0"] ;
23 -> 24 ;
25 [label="forecast_acc <= 49.5\nsquared_error = 9.9\nsamples = 9\nvalue = 46.5"] ;
23 -> 25 ;
26 [label="temp_1 <= 54.5\nsquared_error = 9.7\nsamples = 6\nvalue = 44.6"] ;
25 -> 26 ;
27 [label="average <= 45.2\nsquared_error = 7.2\nsamples = 5\nvalue = 45.3"] ;
26 -> 27 ;
28 [label="squared_error = 0.0\nsamples = 1\nvalue = 40.0"] ;
27 -> 28 ;
29 [label="temp_1 <= 48.0\nsquared_error = 1.8\nsamples = 4\nvalue = 46.4"] ;
27 -> 29 ;
30 [label="squared_error = 0.0\nsamples = 2\nvalue = 48.0"] ;
29 -> 30 ;
31 [label="forecast_under <= 47.5\nsquared_error = 0.2\nsamples = 2\nvalue = 45.3"] ;
29 -> 31 ;
32 [label="squared_error = 0.0\nsamples = 1\nvalue = 46.0"] ;
31 -> 32 ;
33 [label="squared_error = 0.0\nsamples = 1\nvalue = 45.0"] ;
31 -> 33 ;
34 [label="squared_error = 0.0\nsamples = 1\nvalue = 40.0"] ;
26 -> 34 ;
35 [label="average <= 45.9\nsquared_error = 0.5\nsamples = 3\nvalue = 48.8"] ;
25 -> 35 ;
36 [label="squared_error = 0.0\nsamples = 1\nvalue = 48.0"] ;
35 -> 36 ;
37 [label="week_Tues <= 0.5\nsquared_error = 0.2\nsamples = 2\nvalue = 49.2"] ;
35 -> 37 ;
38 [label="squared_error = 0.0\nsamples = 1\nvalue = 50.0"] ;
37 -> 38 ;
39 [label="squared_error = 0.0\nsamples = 1\nvalue = 49.0"] ;
37 -> 39 ;
40 [label="friend <= 53.5\nsquared_error = 7.1\nsamples = 19\nvalue = 50.6"] ;
22 -> 40 ;
41 [label="friend <= 50.5\nsquared_error = 4.0\nsamples = 10\nvalue = 49.3"] ;
40 -> 41 ;
42 [label="day <= 24.0\nsquared_error = 1.4\nsamples = 7\nvalue = 50.7"] ;
41 -> 42 ;
43 [label="forecast_acc <= 51.5\nsquared_error = 0.2\nsamples = 4\nvalue = 49.7"] ;
42 -> 43 ;
44 [label="squared_error = 0.0\nsamples = 2\nvalue = 50.0"] ;
43 -> 44 ;
45 [label="squared_error = 0.0\nsamples = 2\nvalue = 49.0"] ;
43 -> 45 ;
46 [label="squared_error = 0.0\nsamples = 3\nvalue = 52.0"] ;
42 -> 46 ;
47 [label="average <= 48.5\nsquared_error = 0.9\nsamples = 3\nvalue = 47.2"] ;
41 -> 47 ;
48 [label="squared_error = 0.0\nsamples = 2\nvalue = 48.0"] ;
47 -> 48 ;
49 [label="squared_error = 0.0\nsamples = 1\nvalue = 46.0"] ;
47 -> 49 ;
50 [label="day <= 21.5\nsquared_error = 5.2\nsamples = 9\nvalue = 52.7"] ;
40 -> 50 ;
51 [label="temp_2 <= 46.5\nsquared_error = 1.0\nsamples = 5\nvalue = 51.1"] ;
50 -> 51 ;
52 [label="squared_error = 0.0\nsamples = 1\nvalue = 49.0"] ;
51 -> 52 ;
53 [label="forecast_noaa <= 45.0\nsquared_error = 0.2\nsamples = 4\nvalue = 51.5"] ;
51 -> 53 ;
54 [label="squared_error = 0.0\nsamples = 2\nvalue = 52.0"] ;
53 -> 54 ;
55 [label="squared_error = 0.0\nsamples = 2\nvalue = 51.0"] ;
53 -> 55 ;
56 [label="week_Sat <= 0.5\nsquared_error = 3.4\nsamples = 4\nvalue = 54.8"] ;
50 -> 56 ;
57 [label="friend <= 61.5\nsquared_error = 2.0\nsamples = 3\nvalue = 56.0"] ;
56 -> 57 ;
58 [label="squared_error = 0.0\nsamples = 2\nvalue = 57.0"] ;
57 -> 58 ;
59 [label="squared_error = 0.0\nsamples = 1\nvalue = 54.0"] ;
57 -> 59 ;
60 [label="squared_error = 0.0\nsamples = 1\nvalue = 53.0"] ;
56 -> 60 ;
61 [label="temp_1 <= 55.5\nsquared_error = 14.3\nsamples = 37\nvalue = 56.8"] ;
1 -> 61 ;
62 [label="temp_2 <= 57.5\nsquared_error = 6.0\nsamples = 15\nvalue = 54.2"] ;
61 -> 62 ;
63 [label="forecast_acc <= 51.5\nsquared_error = 3.6\nsamples = 13\nvalue = 53.6"] ;
62 -> 63 ;
64 [label="week_Thurs <= 0.5\nsquared_error = 0.5\nsamples = 3\nvalue = 51.4"] ;
63 -> 64 ;
65 [label="temp_2 <= 55.0\nsquared_error = 0.2\nsamples = 2\nvalue = 50.7"] ;
64 -> 65 ;
66 [label="squared_error = 0.0\nsamples = 1\nvalue = 51.0"] ;
65 -> 66 ;
67 [label="squared_error = 0.0\nsamples = 1\nvalue = 50.0"] ;
65 -> 67 ;
68 [label="squared_error = 0.0\nsamples = 1\nvalue = 52.0"] ;
64 -> 68 ;
69 [label="temp_2 <= 54.5\nsquared_error = 2.1\nsamples = 10\nvalue = 54.5"] ;
63 -> 69 ;
70 [label="month <= 7.0\nsquared_error = 0.7\nsamples = 5\nvalue = 55.8"] ;
69 -> 70 ;
71 [label="friend <= 46.0\nsquared_error = 0.6\nsamples = 4\nvalue = 56.2"] ;
70 -> 71 ;
72 [label="squared_error = 0.0\nsamples = 2\nvalue = 57.0"] ;
71 -> 72 ;
73 [label="forecast_acc <= 55.5\nsquared_error = 0.2\nsamples = 2\nvalue = 55.7"] ;
71 -> 73 ;
74 [label="squared_error = 0.0\nsamples = 1\nvalue = 56.0"] ;
73 -> 74 ;
75 [label="squared_error = 0.0\nsamples = 1\nvalue = 55.0"] ;
73 -> 75 ;
76 [label="squared_error = 0.0\nsamples = 1\nvalue = 55.0"] ;
70 -> 76 ;
77 [label="forecast_acc <= 53.0\nsquared_error = 1.1\nsamples = 5\nvalue = 53.5"] ;
69 -> 77 ;
78 [label="squared_error = 0.0\nsamples = 1\nvalue = 51.0"] ;
77 -> 78 ;
79 [label="day <= 12.5\nsquared_error = 0.4\nsamples = 4\nvalue = 53.8"] ;
77 -> 79 ;
80 [label="squared_error = 0.0\nsamples = 1\nvalue = 52.0"] ;
79 -> 80 ;
81 [label="squared_error = 0.0\nsamples = 3\nvalue = 54.0"] ;
79 -> 81 ;
82 [label="squared_error = 0.0\nsamples = 2\nvalue = 59.0"] ;
62 -> 82 ;
83 [label="forecast_noaa <= 48.5\nsquared_error = 10.8\nsamples = 22\nvalue = 59.0"] ;
61 -> 83 ;
84 [label="average <= 51.8\nsquared_error = 0.8\nsamples = 5\nvalue = 55.6"] ;
83 -> 84 ;
85 [label="squared_error = 0.0\nsamples = 4\nvalue = 55.0"] ;
84 -> 85 ;
86 [label="squared_error = 0.0\nsamples = 1\nvalue = 57.0"] ;
84 -> 86 ;
87 [label="friend <= 63.0\nsquared_error = 9.3\nsamples = 17\nvalue = 60.0"] ;
83 -> 87 ;
88 [label="day <= 7.5\nsquared_error = 6.5\nsamples = 12\nvalue = 61.4"] ;
87 -> 88 ;
89 [label="average <= 53.0\nsquared_error = 0.2\nsamples = 2\nvalue = 64.7"] ;
88 -> 89 ;
90 [label="squared_error = 0.0\nsamples = 1\nvalue = 64.0"] ;
89 -> 90 ;
91 [label="squared_error = 0.0\nsamples = 1\nvalue = 65.0"] ;
89 -> 91 ;
92 [label="temp_2 <= 54.0\nsquared_error = 5.0\nsamples = 10\nvalue = 60.7"] ;
88 -> 92 ;
93 [label="forecast_acc <= 58.0\nsquared_error = 0.2\nsamples = 2\nvalue = 63.7"] ;
92 -> 93 ;
94 [label="squared_error = 0.0\nsamples = 1\nvalue = 63.0"] ;
93 -> 94 ;
95 [label="squared_error = 0.0\nsamples = 1\nvalue = 64.0"] ;
93 -> 95 ;
96 [label="temp_1 <= 56.5\nsquared_error = 3.0\nsamples = 8\nvalue = 59.8"] ;
92 -> 96 ;
97 [label="squared_error = 0.0\nsamples = 1\nvalue = 55.0"] ;
96 -> 97 ;
98 [label="week_Sat <= 0.5\nsquared_error = 0.4\nsamples = 7\nvalue = 60.3"] ;
96 -> 98 ;
99 [label="average <= 53.4\nsquared_error = 0.1\nsamples = 6\nvalue = 60.1"] ;
98 -> 99 ;
100 [label="squared_error = 0.0\nsamples = 1\nvalue = 61.0"] ;
99 -> 100 ;
101 [label="squared_error = 0.0\nsamples = 5\nvalue = 60.0"] ;
99 -> 101 ;
102 [label="squared_error = 0.0\nsamples = 1\nvalue = 62.0"] ;
98 -> 102 ;
103 [label="temp_1 <= 57.5\nsquared_error = 4.8\nsamples = 5\nvalue = 57.6"] ;
87 -> 103 ;
104 [label="average <= 54.6\nsquared_error = 2.0\nsamples = 3\nvalue = 56.4"] ;
103 -> 104 ;
105 [label="squared_error = 0.0\nsamples = 2\nvalue = 57.0"] ;
104 -> 105 ;
106 [label="squared_error = 0.0\nsamples = 1\nvalue = 53.0"] ;
104 -> 106 ;
107 [label="forecast_under <= 56.5\nsquared_error = 0.9\nsamples = 2\nvalue = 60.3"] ;
103 -> 107 ;
108 [label="squared_error = 0.0\nsamples = 1\nvalue = 61.0"] ;
107 -> 108 ;
109 [label="squared_error = 0.0\nsamples = 1\nvalue = 59.0"] ;
107 -> 109 ;
110 [label="temp_1 <= 69.5\nsquared_error = 56.7\nsamples = 98\nvalue = 70.5"] ;
0 -> 110 [labeldistance=2.5, labelangle=-45, headlabel="False"] ;
111 [label="forecast_noaa <= 58.5\nsquared_error = 32.5\nsamples = 46\nvalue = 65.2"] ;
110 -> 111 ;
112 [label="temp_2 <= 61.5\nsquared_error = 35.0\nsamples = 19\nvalue = 62.5"] ;
111 -> 112 ;
113 [label="temp_1 <= 66.5\nsquared_error = 32.3\nsamples = 11\nvalue = 65.7"] ;
112 -> 113 ;
114 [label="month <= 2.5\nsquared_error = 14.8\nsamples = 9\nvalue = 64.0"] ;
113 -> 114 ;
115 [label="week_Wed <= 0.5\nsquared_error = 0.2\nsamples = 2\nvalue = 59.7"] ;
114 -> 115 ;
116 [label="squared_error = 0.0\nsamples = 1\nvalue = 60.0"] ;
115 -> 116 ;
117 [label="squared_error = 0.0\nsamples = 1\nvalue = 59.0"] ;
115 -> 117 ;
118 [label="friend <= 68.0\nsquared_error = 11.8\nsamples = 7\nvalue = 65.3"] ;
114 -> 118 ;
119 [label="average <= 52.8\nsquared_error = 8.2\nsamples = 6\nvalue = 66.0"] ;
118 -> 119 ;
120 [label="squared_error = 0.0\nsamples = 1\nvalue = 71.0"] ;
119 -> 120 ;
121 [label="friend <= 55.0\nsquared_error = 5.7\nsamples = 5\nvalue = 65.4"] ;
119 -> 121 ;
122 [label="temp_2 <= 57.5\nsquared_error = 2.6\nsamples = 3\nvalue = 63.8"] ;
121 -> 122 ;
123 [label="squared_error = 0.0\nsamples = 1\nvalue = 65.0"] ;
122 -> 123 ;
124 [label="temp_1 <= 60.5\nsquared_error = 1.0\nsamples = 2\nvalue = 62.0"] ;
122 -> 124 ;
125 [label="squared_error = 0.0\nsamples = 1\nvalue = 61.0"] ;
124 -> 125 ;
126 [label="squared_error = 0.0\nsamples = 1\nvalue = 63.0"] ;
124 -> 126 ;
127 [label="squared_error = 0.0\nsamples = 2\nvalue = 68.0"] ;
121 -> 127 ;
128 [label="squared_error = 0.0\nsamples = 1\nvalue = 59.0"] ;
118 -> 128 ;
129 [label="squared_error = 0.0\nsamples = 2\nvalue = 77.0"] ;
113 -> 129 ;
130 [label="average <= 56.4\nsquared_error = 12.2\nsamples = 8\nvalue = 58.8"] ;
112 -> 130 ;
131 [label="squared_error = 0.0\nsamples = 1\nvalue = 69.0"] ;
130 -> 131 ;
132 [label="temp_2 <= 63.5\nsquared_error = 3.7\nsamples = 7\nvalue = 57.9"] ;
130 -> 132 ;
133 [label="month <= 7.0\nsquared_error = 0.2\nsamples = 2\nvalue = 60.3"] ;
132 -> 133 ;
134 [label="squared_error = 0.0\nsamples = 1\nvalue = 60.0"] ;
133 -> 134 ;
135 [label="squared_error = 0.0\nsamples = 1\nvalue = 61.0"] ;
133 -> 135 ;
136 [label="day <= 19.0\nsquared_error = 2.3\nsamples = 5\nvalue = 57.1"] ;
132 -> 136 ;
137 [label="day <= 9.5\nsquared_error = 1.3\nsamples = 4\nvalue = 57.7"] ;
136 -> 137 ;
138 [label="squared_error = 0.0\nsamples = 2\nvalue = 57.0"] ;
137 -> 138 ;
139 [label="forecast_under <= 58.5\nsquared_error = 0.2\nsamples = 2\nvalue = 59.5"] ;
137 -> 139 ;
140 [label="squared_error = 0.0\nsamples = 1\nvalue = 59.0"] ;
139 -> 140 ;
141 [label="squared_error = 0.0\nsamples = 1\nvalue = 60.0"] ;
139 -> 141 ;
142 [label="squared_error = 0.0\nsamples = 1\nvalue = 55.0"] ;
136 -> 142 ;
143 [label="temp_1 <= 66.5\nsquared_error = 22.5\nsamples = 27\nvalue = 67.0"] ;
111 -> 143 ;
144 [label="temp_2 <= 69.0\nsquared_error = 11.2\nsamples = 16\nvalue = 65.0"] ;
143 -> 144 ;
145 [label="day <= 4.5\nsquared_error = 7.1\nsamples = 13\nvalue = 65.8"] ;
144 -> 145 ;
146 [label="temp_1 <= 63.0\nsquared_error = 0.9\nsamples = 2\nvalue = 62.3"] ;
145 -> 146 ;
147 [label="squared_error = 0.0\nsamples = 1\nvalue = 63.0"] ;
146 -> 147 ;
148 [label="squared_error = 0.0\nsamples = 1\nvalue = 61.0"] ;
146 -> 148 ;
149 [label="forecast_acc <= 65.5\nsquared_error = 5.8\nsamples = 11\nvalue = 66.4"] ;
145 -> 149 ;
150 [label="day <= 12.5\nsquared_error = 2.0\nsamples = 2\nvalue = 69.0"] ;
149 -> 150 ;
151 [label="squared_error = 0.0\nsamples = 1\nvalue = 68.0"] ;
150 -> 151 ;
152 [label="squared_error = 0.0\nsamples = 1\nvalue = 71.0"] ;
150 -> 152 ;
153 [label="month <= 5.5\nsquared_error = 4.9\nsamples = 9\nvalue = 65.9"] ;
149 -> 153 ;
154 [label="forecast_acc <= 68.5\nsquared_error = 6.2\nsamples = 5\nvalue = 64.3"] ;
153 -> 154 ;
155 [label="squared_error = 0.0\nsamples = 1\nvalue = 59.0"] ;
154 -> 155 ;
156 [label="friend <= 74.5\nsquared_error = 0.6\nsamples = 4\nvalue = 65.4"] ;
154 -> 156 ;
157 [label="squared_error = 0.0\nsamples = 2\nvalue = 66.0"] ;
156 -> 157 ;
158 [label="forecast_noaa <= 64.5\nsquared_error = 0.2\nsamples = 2\nvalue = 64.5"] ;
156 -> 158 ;
159 [label="squared_error = 0.0\nsamples = 1\nvalue = 65.0"] ;
158 -> 159 ;
160 [label="squared_error = 0.0\nsamples = 1\nvalue = 64.0"] ;
158 -> 160 ;
161 [label="average <= 68.5\nsquared_error = 1.4\nsamples = 4\nvalue = 66.9"] ;
153 -> 161 ;
162 [label="average <= 64.7\nsquared_error = 0.2\nsamples = 3\nvalue = 66.5"] ;
161 -> 162 ;
163 [label="squared_error = 0.0\nsamples = 1\nvalue = 66.0"] ;
162 -> 163 ;
164 [label="squared_error = 0.0\nsamples = 2\nvalue = 67.0"] ;
162 -> 164 ;
165 [label="squared_error = 0.0\nsamples = 1\nvalue = 70.0"] ;
161 -> 165 ;
166 [label="week_Mon <= 0.5\nsquared_error = 13.5\nsamples = 3\nvalue = 61.0"] ;
144 -> 166 ;
167 [label="day <= 14.5\nsquared_error = 2.0\nsamples = 2\nvalue = 59.0"] ;
166 -> 167 ;
168 [label="squared_error = 0.0\nsamples = 1\nvalue = 60.0"] ;
167 -> 168 ;
169 [label="squared_error = 0.0\nsamples = 1\nvalue = 57.0"] ;
167 -> 169 ;
170 [label="squared_error = 0.0\nsamples = 1\nvalue = 67.0"] ;
166 -> 170 ;
171 [label="temp_2 <= 64.5\nsquared_error = 24.7\nsamples = 11\nvalue = 70.1"] ;
143 -> 171 ;
172 [label="temp_2 <= 61.5\nsquared_error = 0.6\nsamples = 3\nvalue = 76.2"] ;
171 -> 172 ;
173 [label="squared_error = 0.0\nsamples = 1\nvalue = 77.0"] ;
172 -> 173 ;
174 [label="week_Tues <= 0.5\nsquared_error = 0.2\nsamples = 2\nvalue = 75.7"] ;
172 -> 174 ;
175 [label="squared_error = 0.0\nsamples = 1\nvalue = 76.0"] ;
174 -> 175 ;
176 [label="squared_error = 0.0\nsamples = 1\nvalue = 75.0"] ;
174 -> 176 ;
177 [label="temp_1 <= 68.5\nsquared_error = 10.7\nsamples = 8\nvalue = 67.3"] ;
171 -> 177 ;
178 [label="average <= 68.8\nsquared_error = 3.4\nsamples = 7\nvalue = 66.4"] ;
177 -> 178 ;
179 [label="friend <= 57.5\nsquared_error = 0.7\nsamples = 3\nvalue = 64.0"] ;
178 -> 179 ;
180 [label="squared_error = 0.0\nsamples = 1\nvalue = 63.0"] ;
179 -> 180 ;
181 [label="friend <= 70.5\nsquared_error = 0.2\nsamples = 2\nvalue = 64.5"] ;
179 -> 181 ;
182 [label="squared_error = 0.0\nsamples = 1\nvalue = 64.0"] ;
181 -> 182 ;
183 [label="squared_error = 0.0\nsamples = 1\nvalue = 65.0"] ;
181 -> 183 ;
184 [label="week_Sat <= 0.5\nsquared_error = 1.1\nsamples = 4\nvalue = 67.4"] ;
178 -> 184 ;
185 [label="friend <= 73.0\nsquared_error = 0.1\nsamples = 3\nvalue = 67.8"] ;
184 -> 185 ;
186 [label="squared_error = 0.0\nsamples = 1\nvalue = 67.0"] ;
185 -> 186 ;
187 [label="squared_error = 0.0\nsamples = 2\nvalue = 68.0"] ;
185 -> 187 ;
188 [label="squared_error = 0.0\nsamples = 1\nvalue = 65.0"] ;
184 -> 188 ;
189 [label="squared_error = 0.0\nsamples = 1\nvalue = 76.0"] ;
177 -> 189 ;
190 [label="friend <= 40.0\nsquared_error = 35.1\nsamples = 52\nvalue = 74.8"] ;
110 -> 190 ;
191 [label="squared_error = 0.0\nsamples = 1\nvalue = 89.0"] ;
190 -> 191 ;
192 [label="forecast_under <= 76.5\nsquared_error = 28.8\nsamples = 51\nvalue = 74.3"] ;
190 -> 192 ;
193 [label="forecast_acc <= 65.5\nsquared_error = 26.3\nsamples = 38\nvalue = 73.0"] ;
192 -> 193 ;
194 [label="month <= 4.5\nsquared_error = 51.1\nsamples = 6\nvalue = 67.3"] ;
193 -> 194 ;
195 [label="week_Wed <= 0.5\nsquared_error = 29.7\nsamples = 3\nvalue = 72.2"] ;
194 -> 195 ;
196 [label="week_Sat <= 0.5\nsquared_error = 5.6\nsamples = 2\nvalue = 69.3"] ;
195 -> 196 ;
197 [label="squared_error = 0.0\nsamples = 1\nvalue = 71.0"] ;
196 -> 197 ;
198 [label="squared_error = 0.0\nsamples = 1\nvalue = 66.0"] ;
196 -> 198 ;
199 [label="squared_error = 0.0\nsamples = 1\nvalue = 81.0"] ;
195 -> 199 ;
200 [label="forecast_noaa <= 60.5\nsquared_error = 2.9\nsamples = 3\nvalue = 60.7"] ;
194 -> 200 ;
201 [label="friend <= 61.5\nsquared_error = 0.2\nsamples = 2\nvalue = 59.5"] ;
200 -> 201 ;
202 [label="squared_error = 0.0\nsamples = 1\nvalue = 60.0"] ;
201 -> 202 ;
203 [label="squared_error = 0.0\nsamples = 1\nvalue = 59.0"] ;
201 -> 203 ;
204 [label="squared_error = 0.0\nsamples = 1\nvalue = 63.0"] ;
200 -> 204 ;
205 [label="average <= 64.4\nsquared_error = 18.5\nsamples = 32\nvalue = 73.7"] ;
193 -> 205 ;
206 [label="temp_1 <= 79.0\nsquared_error = 9.9\nsamples = 4\nvalue = 78.9"] ;
205 -> 206 ;
207 [label="week_Wed <= 0.5\nsquared_error = 0.2\nsamples = 2\nvalue = 81.2"] ;
206 -> 207 ;
208 [label="squared_error = 0.0\nsamples = 1\nvalue = 82.0"] ;
207 -> 208 ;
209 [label="squared_error = 0.0\nsamples = 1\nvalue = 81.0"] ;
207 -> 209 ;
210 [label="week_Thurs <= 0.5\nsquared_error = 2.0\nsamples = 2\nvalue = 75.0"] ;
206 -> 210 ;
211 [label="squared_error = 0.0\nsamples = 1\nvalue = 74.0"] ;
210 -> 211 ;
212 [label="squared_error = 0.0\nsamples = 1\nvalue = 77.0"] ;
210 -> 212 ;
213 [label="forecast_acc <= 70.5\nsquared_error = 14.6\nsamples = 28\nvalue = 72.8"] ;
205 -> 213 ;
214 [label="week_Mon <= 0.5\nsquared_error = 19.1\nsamples = 6\nvalue = 68.9"] ;
213 -> 214 ;
215 [label="day <= 4.5\nsquared_error = 11.1\nsamples = 5\nvalue = 67.7"] ;
214 -> 215 ;
216 [label="squared_error = 0.0\nsamples = 1\nvalue = 75.0"] ;
215 -> 216 ;
217 [label="average <= 66.0\nsquared_error = 2.6\nsamples = 4\nvalue = 66.5"] ;
215 -> 217 ;
218 [label="week_Wed <= 0.5\nsquared_error = 0.2\nsamples = 2\nvalue = 64.5"] ;
217 -> 218 ;
219 [label="squared_error = 0.0\nsamples = 1\nvalue = 65.0"] ;
218 -> 219 ;
220 [label="squared_error = 0.0\nsamples = 1\nvalue = 64.0"] ;
218 -> 220 ;
221 [label="forecast_acc <= 68.5\nsquared_error = 0.8\nsamples = 2\nvalue = 67.5"] ;
217 -> 221 ;
222 [label="squared_error = 0.0\nsamples = 1\nvalue = 69.0"] ;
221 -> 222 ;
223 [label="squared_error = 0.0\nsamples = 1\nvalue = 67.0"] ;
221 -> 223 ;
224 [label="squared_error = 0.0\nsamples = 1\nvalue = 77.0"] ;
214 -> 224 ;
225 [label="friend <= 72.0\nsquared_error = 9.9\nsamples = 22\nvalue = 73.6"] ;
213 -> 225 ;
226 [label="average <= 68.8\nsquared_error = 8.2\nsamples = 9\nvalue = 72.2"] ;
225 -> 226 ;
227 [label="squared_error = 0.0\nsamples = 1\nvalue = 80.0"] ;
226 -> 227 ;
228 [label="friend <= 53.0\nsquared_error = 4.9\nsamples = 8\nvalue = 71.7"] ;
226 -> 228 ;
229 [label="squared_error = 0.0\nsamples = 1\nvalue = 75.0"] ;
228 -> 229 ;
230 [label="forecast_acc <= 75.5\nsquared_error = 3.1\nsamples = 7\nvalue = 71.0"] ;
228 -> 230 ;
231 [label="squared_error = 0.0\nsamples = 2\nvalue = 67.0"] ;
230 -> 231 ;
232 [label="forecast_noaa <= 73.5\nsquared_error = 0.6\nsamples = 5\nvalue = 71.7"] ;
230 -> 232 ;
233 [label="squared_error = 0.0\nsamples = 3\nvalue = 71.0"] ;
232 -> 233 ;
234 [label="week_Mon <= 0.5\nsquared_error = 0.2\nsamples = 2\nvalue = 72.3"] ;
232 -> 234 ;
235 [label="squared_error = 0.0\nsamples = 1\nvalue = 72.0"] ;
234 -> 235 ;
236 [label="squared_error = 0.0\nsamples = 1\nvalue = 73.0"] ;
234 -> 236 ;
237 [label="temp_2 <= 75.0\nsquared_error = 7.9\nsamples = 13\nvalue = 74.9"] ;
225 -> 237 ;
238 [label="week_Thurs <= 0.5\nsquared_error = 2.4\nsamples = 6\nvalue = 76.8"] ;
237 -> 238 ;
239 [label="average <= 69.0\nsquared_error = 1.2\nsamples = 5\nvalue = 76.4"] ;
238 -> 239 ;
240 [label="squared_error = 0.0\nsamples = 1\nvalue = 79.0"] ;
239 -> 240 ;
241 [label="forecast_acc <= 76.0\nsquared_error = 0.3\nsamples = 4\nvalue = 76.0"] ;
239 -> 241 ;
242 [label="week_Tues <= 0.5\nsquared_error = 0.1\nsamples = 3\nvalue = 75.8"] ;
241 -> 242 ;
243 [label="squared_error = 0.0\nsamples = 2\nvalue = 76.0"] ;
242 -> 243 ;
244 [label="squared_error = 0.0\nsamples = 1\nvalue = 75.0"] ;
242 -> 244 ;
245 [label="squared_error = 0.0\nsamples = 1\nvalue = 77.0"] ;
241 -> 245 ;
246 [label="squared_error = 0.0\nsamples = 1\nvalue = 80.0"] ;
238 -> 246 ;
247 [label="temp_2 <= 79.5\nsquared_error = 7.2\nsamples = 7\nvalue = 73.4"] ;
237 -> 247 ;
248 [label="forecast_noaa <= 70.0\nsquared_error = 1.7\nsamples = 3\nvalue = 70.2"] ;
247 -> 248 ;
249 [label="squared_error = 0.0\nsamples = 2\nvalue = 71.0"] ;
248 -> 249 ;
250 [label="squared_error = 0.0\nsamples = 1\nvalue = 68.0"] ;
248 -> 250 ;
251 [label="temp_2 <= 80.5\nsquared_error = 2.5\nsamples = 4\nvalue = 75.0"] ;
247 -> 251 ;
252 [label="squared_error = 0.0\nsamples = 1\nvalue = 79.0"] ;
251 -> 252 ;
253 [label="month <= 6.5\nsquared_error = 0.2\nsamples = 3\nvalue = 74.4"] ;
251 -> 253 ;
254 [label="squared_error = 0.0\nsamples = 1\nvalue = 74.0"] ;
253 -> 254 ;
255 [label="squared_error = 0.0\nsamples = 2\nvalue = 75.0"] ;
253 -> 255 ;
256 [label="temp_1 <= 77.5\nsquared_error = 16.7\nsamples = 13\nvalue = 78.1"] ;
192 -> 256 ;
257 [label="average <= 77.4\nsquared_error = 6.3\nsamples = 8\nvalue = 76.0"] ;
256 -> 257 ;
258 [label="week_Wed <= 0.5\nsquared_error = 3.8\nsamples = 6\nvalue = 77.2"] ;
257 -> 258 ;
259 [label="forecast_acc <= 77.5\nsquared_error = 2.2\nsamples = 4\nvalue = 78.8"] ;
258 -> 259 ;
260 [label="squared_error = 0.0\nsamples = 1\nvalue = 77.0"] ;
259 -> 260 ;
261 [label="squared_error = 0.0\nsamples = 3\nvalue = 80.0"] ;
259 -> 261 ;
262 [label="friend <= 80.5\nsquared_error = 0.2\nsamples = 2\nvalue = 75.6"] ;
258 -> 262 ;
263 [label="squared_error = 0.0\nsamples = 1\nvalue = 76.0"] ;
262 -> 263 ;
264 [label="squared_error = 0.0\nsamples = 1\nvalue = 75.0"] ;
262 -> 264 ;
265 [label="squared_error = 0.0\nsamples = 2\nvalue = 73.0"] ;
257 -> 265 ;
266 [label="forecast_noaa <= 72.5\nsquared_error = 11.1\nsamples = 5\nvalue = 82.3"] ;
256 -> 266 ;
267 [label="squared_error = 0.0\nsamples = 1\nvalue = 87.0"] ;
266 -> 267 ;
268 [label="temp_1 <= 79.5\nsquared_error = 3.0\nsamples = 4\nvalue = 80.4"] ;
266 -> 268 ;
269 [label="forecast_under <= 78.0\nsquared_error = 0.2\nsamples = 2\nvalue = 82.5"] ;
268 -> 269 ;
270 [label="squared_error = 0.0\nsamples = 1\nvalue = 82.0"] ;
269 -> 270 ;
271 [label="squared_error = 0.0\nsamples = 1\nvalue = 83.0"] ;
269 -> 271 ;
272 [label="squared_error = 0.0\nsamples = 2\nvalue = 79.0"] ;
268 -> 272 ;
}